<?xml version="1.0"?>
<opencv_storage>
<stage8>
  <maxWeakCount>7</maxWeakCount>
  <stageThreshold>-1.0916560888290405e+00</stageThreshold>
  <weakClassifiers>
    <_>
      <internalNodes>
        0 -1 449944 -1.1178378481417894e-03</internalNodes>
      <leafValues>
        6.1262553930282593e-01 -7.2992700338363647e-01</leafValues></_>
    <_>
      <internalNodes>
        0 -1 519558 -4.3074525892734528e-03</internalNodes>
      <leafValues>
        7.9215699434280396e-01 -5.8943086862564087e-01</leafValues></_>
    <_>
      <internalNodes>
        0 -1 624767 2.2788104251958430e-04</internalNodes>
      <leafValues>
        -5.7276362180709839e-01 6.2195289134979248e-01</leafValues></_>
    <_>
      <internalNodes>
        0 -1 408638 2.7335976483300328e-04</internalNodes>
      <leafValues>
        4.8911669850349426e-01 -7.6004070043563843e-01</leafValues></_>
    <_>
      <internalNodes>
        0 -1 437785 -3.0546987545676529e-05</internalNodes>
      <leafValues>
        4.1545319557189941e-01 -8.6678689718246460e-01</leafValues></_>
    <_>
      <internalNodes>
        0 -1 506353 1.3016834855079651e-02</internalNodes>
      <leafValues>
        -4.6456158161163330e-01 7.6508259773254395e-01</leafValues></_>
    <_>
      <internalNodes>
        0 -1 442084 -7.2583137080073357e-04</internalNodes>
      <leafValues>
        -9.2197602987289429e-01 4.1489794850349426e-01</leafValues></_></weakClassifiers></stage8>
</opencv_storage>
