<?xml version="1.0"?>
<opencv_storage>
<stage7>
  <maxWeakCount>5</maxWeakCount>
  <stageThreshold>-1.0195252895355225e+00</stageThreshold>
  <weakClassifiers>
    <_>
      <internalNodes>
        0 -1 672623 6.2735582469031215e-04</internalNodes>
      <leafValues>
        -7.0253163576126099e-01 6.8549621105194092e-01</leafValues></_>
    <_>
      <internalNodes>
        0 -1 664727 -3.3851151820272207e-03</internalNodes>
      <leafValues>
        7.1224260330200195e-01 -5.8573120832443237e-01</leafValues></_>
    <_>
      <internalNodes>
        0 -1 342422 -9.2716181825380772e-06</internalNodes>
      <leafValues>
        3.9304730296134949e-01 -9.7908735275268555e-01</leafValues></_>
    <_>
      <internalNodes>
        0 -1 377343 1.2741226702928543e-02</internalNodes>
      <leafValues>
        -5.0266510248184204e-01 7.5943350791931152e-01</leafValues></_>
    <_>
      <internalNodes>
        0 -1 327983 -1.3603169471025467e-02</internalNodes>
      <leafValues>
        -9.0490448474884033e-01 3.7835538387298584e-01</leafValues></_></weakClassifiers></stage7>
</opencv_storage>
