<?xml version="1.0"?>
<opencv_storage>
<stage14>
  <maxWeakCount>7</maxWeakCount>
  <stageThreshold>-1.2057632207870483e+00</stageThreshold>
  <weakClassifiers>
    <_>
      <internalNodes>
        0 -1 447466 -2.5265300064347684e-04</internalNodes>
      <leafValues>
        -8.6440676450729370e-01 3.8709676265716553e-01</leafValues></_>
    <_>
      <internalNodes>
        0 -1 541804 5.8667862322181463e-04</internalNodes>
      <leafValues>
        3.7501907348632813e-01 -9.1740089654922485e-01</leafValues></_>
    <_>
      <internalNodes>
        0 -1 214444 -6.8828510120511055e-03</internalNodes>
      <leafValues>
        6.7986309528350830e-01 -5.4364693164825439e-01</leafValues></_>
    <_>
      <internalNodes>
        0 -1 102625 6.5979668870568275e-03</internalNodes>
      <leafValues>
        -6.6420608758926392e-01 4.8745319247245789e-01</leafValues></_>
    <_>
      <internalNodes>
        0 -1 573127 6.9904788688290864e-05</internalNodes>
      <leafValues>
        3.1662988662719727e-01 -8.7624430656433105e-01</leafValues></_>
    <_>
      <internalNodes>
        0 -1 267921 -3.8806530646979809e-03</internalNodes>
      <leafValues>
        9.0236186981201172e-01 -3.7789922952651978e-01</leafValues></_>
    <_>
      <internalNodes>
        0 -1 654747 3.2437831396237016e-04</internalNodes>
      <leafValues>
        -5.6538063287734985e-01 5.9366327524185181e-01</leafValues></_></weakClassifiers></stage14>
</opencv_storage>
