<?xml version="1.0"?>
<opencv_storage>
<stage17>
  <maxWeakCount>6</maxWeakCount>
  <stageThreshold>-8.1732350587844849e-01</stageThreshold>
  <weakClassifiers>
    <_>
      <internalNodes>
        0 -1 441891 1.7705169739201665e-04</internalNodes>
      <leafValues>
        -6.6037738323211670e-01 4.7826087474822998e-01</leafValues></_>
    <_>
      <internalNodes>
        0 -1 680651 -4.2441210098331794e-05</internalNodes>
      <leafValues>
        3.6682626605033875e-01 -7.8573220968246460e-01</leafValues></_>
    <_>
      <internalNodes>
        0 -1 332567 -7.9689985141158104e-03</internalNodes>
      <leafValues>
        3.9938348531723022e-01 -8.0726867914199829e-01</leafValues></_>
    <_>
      <internalNodes>
        0 -1 603205 -9.4457960221916437e-04</internalNodes>
      <leafValues>
        4.5855501294136047e-01 -6.2502896785736084e-01</leafValues></_>
    <_>
      <internalNodes>
        0 -1 590736 -2.1741847740486264e-04</internalNodes>
      <leafValues>
        5.5342620611190796e-01 -5.9646296501159668e-01</leafValues></_>
    <_>
      <internalNodes>
        0 -1 675873 -7.3793385126919020e-06</internalNodes>
      <leafValues>
        4.5038187503814697e-01 -7.2848504781723022e-01</leafValues></_></weakClassifiers></stage17>
</opencv_storage>
