<?xml version="1.0"?>
<opencv_storage>
<stage19>
  <maxWeakCount>7</maxWeakCount>
  <stageThreshold>-9.9906313419342041e-01</stageThreshold>
  <weakClassifiers>
    <_>
      <internalNodes>
        0 -1 605557 4.5643970952369273e-04</internalNodes>
      <leafValues>
        -5.3348731994628906e-01 7.3244148492813110e-01</leafValues></_>
    <_>
      <internalNodes>
        0 -1 583582 -4.2201844044029713e-03</internalNodes>
      <leafValues>
        4.0170523524284363e-01 -8.4848856925964355e-01</leafValues></_>
    <_>
      <internalNodes>
        0 -1 649791 1.3721091090701520e-04</internalNodes>
      <leafValues>
        -7.3728454113006592e-01 4.3943360447883606e-01</leafValues></_>
    <_>
      <internalNodes>
        0 -1 16005 -1.5524274203926325e-03</internalNodes>
      <leafValues>
        -6.6517490148544312e-01 4.3512430787086487e-01</leafValues></_>
    <_>
      <internalNodes>
        0 -1 702952 1.0504927486181259e-03</internalNodes>
      <leafValues>
        -5.4461061954498291e-01 6.1811727285385132e-01</leafValues></_>
    <_>
      <internalNodes>
        0 -1 299250 -1.0111408308148384e-02</internalNodes>
      <leafValues>
        3.9885249733924866e-01 -8.1148278713226318e-01</leafValues></_>
    <_>
      <internalNodes>
        0 -1 777476 5.0448281690478325e-03</internalNodes>
      <leafValues>
        -3.3189675211906433e-01 1.</leafValues></_></weakClassifiers></stage19>
</opencv_storage>
